tree
version=v3
num_class=1
num_tree_per_iteration=1
label_index=0
max_feature_idx=5
objective=binary sigmoid:1
feature_names=Ki67 IOAA FBG Glycated_Hemoglobin Uric_Acid CA-199
feature_infos=[-1:0.90000000000000002] [-1:143.69999999999999] [-1:9.3200000000000003] [-1:9.3000000000000007] [-1:617.70000000000005] [-1:1026.4100000000001]
tree_sizes=647 648 545 644 646 644 652 647 648 648 650 646 652 654 654 549 646 653 649 650 653 546 648 646 652 652 648 652 644 652 650 651 653 645 649 547 646 650 647 651 653 548 648 647 650 653 651 750 651 550 549 651 751 650 655 746 648 650 651 653 651 749 652 552 660 653 655 761 548 654 658 655 750 753 651 757 650 649 651 648 757 652 656 655 550 648 650 650 650 652 653 649 651 651 654 550 550 649 757 651

Tree=0
num_leaves=5
num_cat=0
split_feature=2 5 5 5
split_gain=14.2489 6.29999 2.66538 3.81165
threshold=4.9900000000000011 22.901846480519296 2.391495854378634 5.4706637006602001
decision_type=2 2 2 2
left_child=-1 2 -2 -4
right_child=1 -3 3 -5
leaf_value=0.12979831331761263 0.076269684037113566 -0.045196697872118073 -0.026095129749295377 0.053949536670152239
leaf_weight=7.7456753551960018 6.4963728785514894 5.4969308972358695 4.9972099065780622 6.9960938692092896
leaf_count=31 26 22 20 28
internal_value=0.0472529 0.0205976 0.0401581 0.0205976
internal_weight=0 23.9866 18.4897 11.9933
internal_count=127 96 74 48
is_linear=0
shrinkage=1


Tree=1
num_leaves=5
num_cat=0
split_feature=3 5 0 1
split_gain=12.4758 3.88056 2.67416 1.39619
threshold=4.9271717022523722 22.901846480519296 0.41067856064254504 21.351354354122204
decision_type=2 2 2 2
left_child=-1 2 3 -2
right_child=1 -3 -4 -5
leaf_value=0.088774922261500286 0.039620753478789225 -0.073806662601925574 -0.035709319653501083 -0.010341411536643634
leaf_weight=6.2322233021259335 5.7434627413749748 5.496269777417182 8.9851676225662214 5.2421321123838425
leaf_count=25 23 22 36 21
internal_value=0 -0.0217209 -0.00738604 0.0157797
internal_weight=0 25.467 19.9708 10.9856
internal_count=127 102 80 44
is_linear=0
shrinkage=0.07


Tree=2
num_leaves=4
num_cat=0
split_feature=2 5 3
split_gain=11.7143 4.78482 2.40208
threshold=4.9900000000000011 22.901846480519296 5.701874259213259
decision_type=2 2 2
left_child=-1 2 -2
right_child=1 -3 -4
leaf_value=0.075149201377487901 0.018861095994669917 -0.081564086200665048 -0.031643470154347229
leaf_weight=7.6941075921058681 8.9809449762105995 5.4813377559185019 9.4910439699888212
leaf_count=31 36 22 38
internal_value=0 -0.0241311 -0.00708852
internal_weight=0 23.9533 18.472
internal_count=127 96 74
is_linear=0
shrinkage=0.07


Tree=3
num_leaves=5
num_cat=0
split_feature=2 5 2 2
split_gain=10.1973 4.28141 2.7037 2.19107
threshold=4.9900000000000011 2.391495854378634 6.2541431946774724 5.6100000000000003
decision_type=2 2 2 2
left_child=-1 -2 3 -3
right_child=1 2 -4 -5
leaf_value=0.070426057643966491 0.026099499373574558 -0.029785131326789928 0.003012573321728025 -0.088569934465580383
leaf_weight=7.6373944729566601 6.4804455786943462 6.4763563573360461 4.9870716631412497 5.9715542495250702
leaf_count=31 26 26 20 24
internal_value=0 -0.0224808 -0.0405378 -0.0579856
internal_weight=0 23.9154 17.435 12.4479
internal_count=127 96 70 50
is_linear=0
shrinkage=0.07


Tree=4
num_leaves=5
num_cat=0
split_feature=3 5 5 5
split_gain=9.39505 2.61799 4.52617 4.52731
threshold=4.9271717022523722 2.391495854378634 5.2106644410404952 22.901846480519296
decision_type=2 2 2 2
left_child=-1 -2 -3 -4
right_child=1 2 3 -5
leaf_value=0.077885426108670525 0.022843887508872038 -0.086754791461790853 0.019865047408206896 -0.061218016912801848
leaf_weight=6.1144362837076214 5.725923269987109 5.2249333262443569 8.9580990970134717 5.4132421612739554
leaf_count=25 23 21 36 22
internal_value=0 -0.0187946 -0.0309611 -0.0106764
internal_weight=0 25.3222 19.5963 14.3713
internal_count=127 102 79 58
is_linear=0
shrinkage=0.07


Tree=5
num_leaves=5
num_cat=0
split_feature=2 3 1 4
split_gain=8.47241 4.71848 2.88568 1.66778
threshold=4.9300000000000006 5.1050000000000013 20.62928824857098 204.35938594444499
decision_type=2 2 2 2
left_child=-1 -2 3 -3
right_child=1 2 -4 -5
leaf_value=0.069176637205980843 0.042052866892866081 -0.03584743522096525 -0.06396684062957908 0.019662931943771254
leaf_weight=6.7942941933870342 4.9282341301441219 5.6953446716070193 8.9156921952962858 4.963231548666954
leaf_count=28 20 23 36 20
internal_value=0 -0.0191668 -0.0345801 -0.00999869
internal_weight=0 24.5025 19.5743 10.6586
internal_count=127 99 79 43
is_linear=0
shrinkage=0.07


Tree=6
num_leaves=5
num_cat=0
split_feature=2 5 0 3
split_gain=7.52718 4.63224 5.28103 3.68143
threshold=4.7997959710304832 1.0000000180025095e-35 -0.98771794633961629 5.7211968678411802
decision_type=2 2 2 2
left_child=-1 -2 -3 -4
right_child=1 2 3 -5
leaf_value=0.076411415959174819 0.045417187339015834 0.029780046166648259 -0.081161967705231083 -0.012633639818288951
leaf_weight=5.2536153048276928 4.9496571570634869 5.3967874348163685 8.6105703562498004 6.935016706585885
leaf_count=22 20 22 35 28
internal_value=0 -0.0154854 -0.0298796 -0.0505909
internal_weight=0 25.892 20.9424 15.5456
internal_count=127 105 85 63
is_linear=0
shrinkage=0.07


Tree=7
num_leaves=5
num_cat=0
split_feature=3 2 2 5
split_gain=7.06778 3.69395 2.32237 3.55431
threshold=4.9271717022523722 5.0550000000000006 6.2541431946774724 9.9450000000000021
decision_type=2 2 2 2
left_child=-1 -2 3 -3
right_child=1 2 -4 -5
leaf_value=0.068802076702244766 0.038627573640936656 -0.01514089823483135 0.0052686428451275275 -0.087110058493968384
leaf_weight=5.9219864308834103 4.8525042533874538 7.9404803961515444 6.4543351680040351 5.8321491032838821
leaf_count=25 20 32 26 24
internal_value=0 -0.0162212 -0.0293796 -0.0456169
internal_weight=0 25.0795 20.227 13.7726
internal_count=127 102 82 56
is_linear=0
shrinkage=0.07


Tree=8
num_leaves=5
num_cat=0
split_feature=3 2 1 5
split_gain=6.20335 3.21151 2.8117 2.00973
threshold=4.9271717022523722 5.0550000000000006 20.000000000000004 6.4495496196421636
decision_type=2 2 2 2
left_child=-1 -2 3 -3
right_child=1 2 -4 -5
leaf_value=0.065034618993466131 0.036125570335713696 0.029480258601359284 -0.055682698115359718 -0.030999855740362951
leaf_weight=5.8298356086015728 4.8263394683599499 4.9788125008344668 9.3020404130220395 5.8619369566440582
leaf_count=25 20 20 38 24
internal_value=0 -0.0151608 -0.0274493 -0.00322326
internal_weight=0 24.9691 20.1428 10.8407
internal_count=127 102 82 44
is_linear=0
shrinkage=0.07


Tree=9
num_leaves=5
num_cat=0
split_feature=2 3 4 1
split_gain=5.51061 3.54632 1.97916 2.93512
threshold=4.7997959710304832 5.1050000000000013 330.05000000000001 11.800000000000002
decision_type=2 2 2 2
left_child=-1 -2 3 -3
right_child=1 2 -4 -5
leaf_value=0.067095000051031764 0.039412710211421904 -0.044406040230106116 -0.061701587274384115 0.017597393430081688
leaf_weight=5.0179776102304485 5.0512262582778957 7.3408119380474108 5.5646732449531546 7.6288148611783981
leaf_count=22 21 30 23 31
internal_value=0 -0.0131323 -0.0260578 -0.0128079
internal_weight=0 25.5855 20.5343 14.9696
internal_count=127 105 84 61
is_linear=0
shrinkage=0.07


Tree=10
num_leaves=5
num_cat=0
split_feature=3 2 1 4
split_gain=4.90429 2.41641 2.59134 1.68567
threshold=4.9271717022523722 5.0550000000000006 20.000000000000004 204.35938594444499
decision_type=2 2 2 2
left_child=-1 -2 3 -3
right_child=1 2 -4 -5
leaf_value=0.058901425203824125 0.031442751681503185 -0.027351744008549936 -0.051335617989607639 0.028061031237785295
leaf_weight=5.6448127925395992 4.7554242610931423 5.6084214001894015 9.2121206372976285 5.1693670302629471
leaf_count=25 20 23 38 21
internal_value=0 -0.0134057 -0.0240748 -0.00077403
internal_weight=0 24.7453 19.9899 10.7778
internal_count=127 102 82 44
is_linear=0
shrinkage=0.07


Tree=11
num_leaves=5
num_cat=0
split_feature=2 0 5 3
split_gain=4.45757 3.45607 4.05886 2.02161
threshold=4.7997959710304832 -0.98771794633961629 2.391495854378634 5.7211968678411802
decision_type=2 2 2 2
left_child=-1 -2 -3 -4
right_child=1 2 3 -5
leaf_value=0.061570326550763679 0.033536591303201205 0.022025628953505877 -0.072255194468119857 -0.017206152117790547
leaf_weight=4.8418767601251629 6.2327093482017579 5.8596816509962073 7.3991761952638608 5.85585917532444
leaf_count=22 26 24 31 24
internal_value=0 -0.011729 -0.0264886 -0.0479354
internal_weight=0 25.3474 19.1147 13.255
internal_count=127 105 79 55
is_linear=0
shrinkage=0.07


Tree=12
num_leaves=5
num_cat=0
split_feature=2 5 0 1
split_gain=3.93441 3.12978 3.78266 2.38159
threshold=4.7997959710304832 1.0000000180025095e-35 -0.98771794633961629 20.000000000000004
decision_type=2 2 2 2
left_child=-1 -2 -3 -4
right_child=1 2 3 -5
leaf_value=0.058556063306036611 0.039608404724255475 0.02803864186346108 -0.012943367091249778 -0.068500795780165463
leaf_weight=4.738510966300967 4.846756279468539 5.2805117070674976 7.5464061200618673 7.5767027884721756
leaf_count=22 20 22 31 32
internal_value=0 -0.0109565 -0.0229679 -0.0407777
internal_weight=0 25.2504 20.4036 15.1231
internal_count=127 105 85 63
is_linear=0
shrinkage=0.07


Tree=13
num_leaves=5
num_cat=0
split_feature=3 0 0 1
split_gain=3.80447 1.80966 0.927958 0.710598
threshold=4.9271717022523722 0.41067856064254504 0.60182812630212712 11.800000000000002
decision_type=2 2 2 2
left_child=-1 3 -3 -2
right_child=1 2 -4 -5
leaf_value=0.053177219298621646 -0.013261925083500502 -0.055801678240064496 -0.013542776772086157 0.018309810841456779
leaf_weight=5.4014745354652431 6.2384983301162737 4.9947602897882444 5.1938255429267883 7.9380324333906174
leaf_count=25 26 21 22 33
internal_value=0 -0.0117564 -0.0342594 0.00441641
internal_weight=0 24.3651 10.1886 14.1765
internal_count=127 102 43 59
is_linear=0
shrinkage=0.07


Tree=14
num_leaves=5
num_cat=0
split_feature=5 0 3 1
split_gain=3.44682 2.57901 1.77899 1.35643
threshold=1.0000000180025095e-35 -0.98771794633961629 5.7211968678411802 17.243456094010366
decision_type=2 2 2 2
left_child=-1 -2 3 -3
right_child=1 2 -4 -5
leaf_value=0.048226828744982672 0.026663718424614694 -0.018838510696601658 0.0017186148358045239 -0.069140542127257232
leaf_weight=5.8385896086692837 6.2880298346281114 5.2900284230709058 7.0083362460136405 5.2175432145595551
leaf_count=25 27 23 29 23
internal_value=0 -0.0117919 -0.025597 -0.043816
internal_weight=0 23.8039 17.5159 10.5076
internal_count=127 102 75 46
is_linear=0
shrinkage=0.07


Tree=15
num_leaves=4
num_cat=0
split_feature=2 5 1
split_gain=3.41762 2.36084 2.44992
threshold=4.9300000000000006 22.901846480519296 20.000000000000004
decision_type=2 2 2
left_child=-1 2 -2
right_child=1 -3 -4
leaf_value=0.047117143305214208 0.025078350818826426 -0.054819215650610757 -0.025806516105788324
leaf_weight=6.0144353210926083 9.2147057056427055 4.9771813154220572 9.3311907351016981
leaf_count=28 38 22 39
internal_value=0 -0.0120121 -0.000523884
internal_weight=0 23.5231 18.5459
internal_count=127 99 77
is_linear=0
shrinkage=0.07


Tree=16
num_leaves=5
num_cat=0
split_feature=3 0 4 0
split_gain=3.15248 1.53592 3.30017 0.878252
threshold=4.9271717022523722 0.41067856064254504 223.75000000000003 0.60182812630212712
decision_type=2 2 2 2
left_child=-1 2 -2 -3
right_child=1 3 -4 -5
leaf_value=0.049337921485831 -0.033891636847706852 -0.05269399686419797 0.034359773757083378 -0.0112680040387436
leaf_weight=5.2219061106443432 6.2100248634815234 4.9196514189243299 7.8718347400426865 5.1147987097501755
leaf_count=25 26 21 33 22
internal_value=0 -0.010651 0.00426127 -0.0315782
internal_weight=0 24.1163 14.0819 10.0345
internal_count=127 102 59 43
is_linear=0
shrinkage=0.07


Tree=17
num_leaves=5
num_cat=0
split_feature=5 0 3 0
split_gain=2.9845 2.21853 1.62185 1.20376
threshold=1.0000000180025095e-35 -0.98771794633961629 5.7211968678411802 0.56783827954085064
decision_type=2 2 2 2
left_child=-1 -2 3 -3
right_child=1 2 -4 -5
leaf_value=0.045290803107139205 0.02491805334692241 -0.064763846664693203 0.0021649789358565985 -0.016896038478817172
leaf_weight=5.7360310554504421 6.190667048096663 5.3098394274711591 6.967685028910636 4.9966461509466171
leaf_count=25 27 24 29 22
internal_value=0 -0.0110363 -0.0239215 -0.0415572
internal_weight=0 23.4648 17.2742 10.3065
internal_count=127 102 75 46
is_linear=0
shrinkage=0.07


Tree=18
num_leaves=5
num_cat=0
split_feature=3 0 4 0
split_gain=2.76278 1.34525 2.95073 0.759879
threshold=4.9271717022523722 0.41067856064254504 235.20000000000002 0.60182812630212712
decision_type=2 2 2 2
left_child=-1 2 -2 -3
right_child=1 3 -4 -5
leaf_value=0.046757835026471163 -0.029678652916944114 -0.04936827981755755 0.0345772489186916 -0.010698882847109495
leaf_weight=5.1114228814840343 6.6735183745622653 4.868317782878874 7.3683381825685501 5.0970776230096817
leaf_count=25 28 21 31 22
internal_value=0 -0.00992024 0.00403905 -0.0295897
internal_weight=0 24.0073 14.0419 9.9654
internal_count=127 102 59 43
is_linear=0
shrinkage=0.07


Tree=19
num_leaves=5
num_cat=0
split_feature=2 1 4 1
split_gain=2.91679 1.99829 3.78042 1.32647
threshold=4.9300000000000006 20.000000000000004 223.75000000000003 25.954618572019129
decision_type=2 2 2 2
left_child=-1 2 -2 -3
right_child=1 3 -4 -5
leaf_value=0.044284092024846941 -0.025756420024754464 -0.057850661351547775 0.053290779119751788 -0.0093717725324054587
leaf_weight=5.8297027796506908 6.8214398026466387 5.3042872548103315 5.2432980388402939 5.7783728241920471
leaf_count=28 29 23 22 25
internal_value=0 -0.0111151 0.00859725 -0.0325743
internal_weight=0 23.1474 12.0647 11.0827
internal_count=127 99 51 48
is_linear=0
shrinkage=0.07


Tree=20
num_leaves=5
num_cat=0
split_feature=5 5 5 4
split_gain=2.6519 2.14013 2.75127 0.827813
threshold=1.0000000180025095e-35 5.2106644410404952 22.901846480519296 239.45000000000002
decision_type=2 2 2 2
left_child=-1 -2 3 -3
right_child=1 2 -4 -5
leaf_value=0.043076920814745741 -0.040765746068331839 0.0038333915634738936 -0.037040456530819436 0.043640430980869886
leaf_weight=5.6395607739686993 7.6442890167236355 4.7209074646234495 5.1974274367094031 5.5919134318828583
leaf_count=25 33 21 24 24
internal_value=0 -0.0104519 0.00448836 0.0254179
internal_weight=0 23.1545 15.5102 10.3128
internal_count=127 102 69 45
is_linear=0
shrinkage=0.07


Tree=21
num_leaves=4
num_cat=0
split_feature=3 5 5
split_gain=2.33931 1.59987 2.40683
threshold=5.1050000000000013 5.2106644410404952 22.901846480519296
decision_type=2 2 2
left_child=-1 -2 -3
right_child=1 2 -4
leaf_value=0.034324862005908244 -0.033973336924182557 0.02902863475085336 -0.034625761333027194
leaf_weight=7.2736626714468029 9.0553288161754626 7.6371985524892789 4.7029492855072021
leaf_count=35 38 32 22
internal_value=0 -0.0116279 0.00476933
internal_weight=0 21.3955 12.3401
internal_count=127 92 54
is_linear=0
shrinkage=0.07


Tree=22
num_leaves=5
num_cat=0
split_feature=2 1 2 0
split_gain=2.5069 1.82568 2.01417 1.65932
threshold=4.9300000000000006 20.000000000000004 5.5711708059992597 0.41067856064254504
decision_type=2 2 2 2
left_child=-1 2 -2 -3
right_child=1 3 -4 -5
leaf_value=0.041639866236238297 0.045762145295903472 -0.0047571910739449327 -0.013690227897150076 -0.059316191774657245
leaf_weight=5.6816075295209911 4.473637059330942 5.6880790293216688 7.4292757213115692 5.2548997104167938
leaf_count=28 20 24 31 24
internal_value=0 -0.0103189 0.00865458 -0.0309568
internal_weight=0 22.8459 11.9029 10.943
internal_count=127 99 51 48
is_linear=0
shrinkage=0.07


Tree=23
num_leaves=5
num_cat=0
split_feature=2 2 4 2
split_gain=2.2006 1.78743 2.72705 2.5893
threshold=4.9300000000000006 6.2541431946774724 323.85000000000008 5.3716557661154498
decision_type=2 2 2 2
left_child=-1 2 3 -2
right_child=1 -3 -4 -5
leaf_value=0.039380474304518125 -0.0038429216352038123 0.020664044322490083 0.023999948578385014 -0.07039716637776304
leaf_weight=5.5904112756252315 5.2290633320808464 6.7242580354213706 4.4858562946319571 6.3339198231697083
leaf_count=28 23 28 21 27
internal_value=0 -0.00963304 -0.0223271 -0.0402997
internal_weight=0 22.7731 16.0488 11.563
internal_count=127 99 71 50
is_linear=0
shrinkage=0.07


Tree=24
num_leaves=5
num_cat=0
split_feature=5 0 0 4
split_gain=2.43755 1.90384 1.21557 1.46624
threshold=1.0000000180025095e-35 -0.98771794633961629 0.28360385667135829 246.30000000000004
decision_type=2 2 2 2
left_child=-1 -2 -3 -4
right_child=1 2 3 -5
leaf_value=0.04169516933889731 0.02393649760488429 -0.05331434084490496 0.016339510279821428 -0.032400815129331142
leaf_weight=5.5300413668155697 5.9343450069427552 4.5005627125501624 5.4363293945789319 6.8162197023630142
leaf_count=25 27 20 24 31
internal_value=0 -0.0101343 -0.022203 -0.0107752
internal_weight=0 22.6875 16.7531 12.2525
internal_count=127 102 75 55
is_linear=0
shrinkage=0.07


Tree=25
num_leaves=5
num_cat=0
split_feature=5 5 4 1
split_gain=2.12783 1.7364 1.99835 2.53055
threshold=1.0000000180025095e-35 4.6780687426313703 211.15096941625848 21.176056143753822
decision_type=2 2 2 2
left_child=-1 -2 -3 -4
right_child=1 2 3 -5
leaf_value=0.039170307644388093 -0.039038193445850425 -0.027025603431582997 0.061102857872423796 -0.011434299969812607
leaf_weight=5.476421698927882 6.8005069643259075 6.3712532669305793 4.5722093433141691 4.8632629811763763
leaf_count=25 30 29 20 23
internal_value=0 -0.00946155 0.00326317 0.0237155
internal_weight=0 22.6072 15.8067 9.43547
internal_count=127 102 72 43
is_linear=0
shrinkage=0.07


Tree=26
num_leaves=5
num_cat=0
split_feature=2 2 4 2
split_gain=1.93473 1.60937 2.40875 2.31086
threshold=4.9300000000000006 6.2541431946774724 323.85000000000008 5.3716557661154498
decision_type=2 2 2 2
left_child=-1 2 3 -2
right_child=1 -3 -4 -5
leaf_value=0.037279697208902007 -0.0036186508435829996 0.019736793057661135 0.022516839272392123 -0.067020423384215072
leaf_weight=5.4895995706319836 5.1472882181406039 6.6782276332378379 4.4331498444080344 6.2217426747083664
leaf_count=28 23 28 21 27
internal_value=0 -0.0090738 -0.0212496 -0.0383155
internal_weight=0 22.4804 15.8022 11.369
internal_count=127 99 71 50
is_linear=0
shrinkage=0.07


Tree=27
num_leaves=5
num_cat=0
split_feature=5 4 4 4
split_gain=1.8906 1.70902 2.58417 2.37231
threshold=1.0000000180025095e-35 330.05000000000001 211.15096941625848 109.40427570100805
decision_type=2 2 2 2
left_child=-1 2 3 -2
right_child=1 -3 -4 -5
leaf_value=0.03719142764788283 0.011818868850754593 -0.043955775163643657 0.029947275314278904 -0.060368823325284648
leaf_weight=5.4024148434400585 4.4474613815546089 5.2347742170095435 8.2586387544870359 4.4754229336977005
leaf_count=25 21 24 37 20
internal_value=0 -0.00893934 0.00172928 -0.0243881
internal_weight=0 22.4163 17.1815 8.92288
internal_count=127 102 78 41
is_linear=0
shrinkage=0.07


Tree=28
num_leaves=5
num_cat=0
split_feature=5 5 2 4
split_gain=1.66996 2.90053 1.86958 3.47736
threshold=2.391495854378634 4.6780687426313703 5.9891220006539294 211.15096941625848
decision_type=2 2 2 2
left_child=-1 -2 3 -3
right_child=1 2 -4 -5
leaf_value=0.02839376639069216 -0.058821190768364583 -0.060292706120226768 0.041788469443085216 0.02028442482387724
leaf_weight=7.4288163334131267 4.6658469587564495 4.3367326855659467 4.5600318610668173 6.6463704705238342
leaf_count=34 21 21 20 31
internal_value=0 -0.0104186 0.00411122 -0.0115319
internal_weight=0 20.209 15.5431 10.9831
internal_count=127 93 72 52
is_linear=0
shrinkage=0.07


Tree=29
num_leaves=5
num_cat=0
split_feature=2 0 4 1
split_gain=1.75041 1.78093 2.10842 1.07452
threshold=4.7997959710304832 -0.98771794633961629 246.30000000000004 23.297815907947033
decision_type=2 2 2 2
left_child=-1 -2 -3 -4
right_child=1 2 3 -5
leaf_value=0.042630564948284676 0.026651735735329952 0.012568600476089596 -0.056974210684418089 -0.013118248191097059
leaf_weight=4.0311212092638042 5.7303915917873445 6.7621201127767554 6.0296274423599225 5.0137622207403183
leaf_count=22 26 30 26 23
internal_value=0 -0.00729055 -0.0182143 -0.0370634
internal_weight=0 23.5359 17.8055 11.0434
internal_count=127 105 79 49
is_linear=0
shrinkage=0.07


Tree=30
num_leaves=5
num_cat=0
split_feature=2 0 5 1
split_gain=1.54412 1.54319 2.00358 1.57692
threshold=4.7997959710304832 -0.98771794633961629 2.391495854378634 20.000000000000004
decision_type=2 2 2 2
left_child=-1 -2 -3 -4
right_child=1 2 3 -5
leaf_value=0.040524046952418145 0.024819781197760623 0.01768559264541408 -0.0091393956880291751 -0.059611105724541855
leaf_weight=3.9469153136014965 5.7228917479515138 5.5980333089828482 6.4397434890270215 5.7341922372579575
leaf_count=22 26 24 28 27
internal_value=0 -0.00679431 -0.0169746 -0.0329127
internal_weight=0 23.4949 17.772 12.1739
internal_count=127 105 79 55
is_linear=0
shrinkage=0.07


Tree=31
num_leaves=5
num_cat=0
split_feature=2 0 4 1
split_gain=1.36292 1.34219 1.74893 1.0133
threshold=4.7997959710304832 -0.98771794633961629 246.30000000000004 23.297815907947033
decision_type=2 2 2 2
left_child=-1 -2 -3 -4
right_child=1 2 3 -5
leaf_value=0.038503813976605059 0.023116888154505053 0.012092453007807128 -0.052655396513130462 -0.0097600463488869381
leaf_weight=3.866193279623988 5.7146545648574891 6.7457284927368155 5.9686883240938169 4.9250951111316681
leaf_count=22 26 30 26 23
internal_value=0 -0.00636612 -0.0159177 -0.0332623
internal_weight=0 23.3542 17.6395 10.8938
internal_count=127 105 79 49
is_linear=0
shrinkage=0.07


Tree=32
num_leaves=5
num_cat=0
split_feature=5 5 4 1
split_gain=1.45677 1.46248 1.82621 1.21576
threshold=1.0000000180025095e-35 5.2106644410404952 211.15096941625848 21.176056143753822
decision_type=2 2 2 2
left_child=-1 -2 -3 -4
right_child=1 2 3 -5
leaf_value=0.033167114231470465 -0.033584642138181915 -0.024057126640531747 0.052902569399617468 -0.00032060910196500113
leaf_weight=5.2373077422380474 7.2704030871391323 6.1769386231899253 4.1708376109600049 4.2417976856231689
leaf_count=25 33 29 19 21
internal_value=0 -0.0079362 0.00484515 0.0260665
internal_weight=0 21.86 14.5896 8.41264
internal_count=127 102 69 40
is_linear=0
shrinkage=0.07


Tree=33
num_leaves=5
num_cat=0
split_feature=5 5 2 4
split_gain=1.34933 2.32806 1.76966 3.30166
threshold=2.391495854378634 4.6780687426313703 5.9891220006539294 211.15096941625848
decision_type=2 2 2 2
left_child=-1 -2 3 -3
right_child=1 2 -4 -5
leaf_value=0.025847618709569035 -0.053473701552651548 -0.059688835137335278 0.040353343250198175 0.019807308227635111
leaf_weight=7.2450324445962933 4.5376357734203365 4.2570840269327146 4.524012327194213 6.4215557128190994
leaf_count=34 21 21 20 31
internal_value=0 -0.0094726 0.0036607 -0.0118842
internal_weight=0 19.7403 15.2027 10.6786
internal_count=127 93 72 52
is_linear=0
shrinkage=0.07


Tree=34
num_leaves=5
num_cat=0
split_feature=2 1 2 0
split_gain=1.34421 1.61533 1.76159 1.37392
threshold=4.9300000000000006 20.000000000000004 5.5711708059992597 0.41067856064254504
decision_type=2 2 2 2
left_child=-1 2 -2 -3
right_child=1 3 -4 -5
leaf_value=0.032055496226248016 0.0470082044311632 -0.0033287801344849943 -0.010319024417742732 -0.054245929758317796
leaf_weight=5.1781769767403629 4.1442285031080264 5.4634550362825376 7.1718937456607819 4.9489538222551346
leaf_count=28 20 24 31 24
internal_value=0 -0.00763243 0.0106755 -0.0275294
internal_weight=0 21.7285 11.3161 10.4124
internal_count=127 99 51 48
is_linear=0
shrinkage=0.07


Tree=35
num_leaves=4
num_cat=0
split_feature=3 5 5
split_gain=1.23897 1.42554 1.7259
threshold=5.1050000000000013 5.2106644410404952 22.901846480519296
decision_type=2 2 2
left_child=-1 -2 -3
right_child=1 2 -4
leaf_value=0.026350499447847835 -0.030383864893022722 0.028146295590026751 -0.027503649940959371
leaf_weight=6.5915217772126224 8.5125507414340991 7.2888738811016065 4.3667334467172623
leaf_count=35 38 32 22
internal_value=0 -0.00860716 0.00729723
internal_weight=0 20.1682 11.6556
internal_count=127 92 54
is_linear=0
shrinkage=0.07


Tree=36
num_leaves=5
num_cat=0
split_feature=5 5 2 2
split_gain=1.27599 1.90598 1.6537 2.09413
threshold=2.391495854378634 4.6780687426313703 5.9891220006539294 5.3716557661154498
decision_type=2 2 2 2
left_child=-1 -2 3 -3
right_child=1 2 -4 -5
leaf_value=0.025272625124452771 -0.049587180796124647 0.017475059844153359 0.037986241920100645 -0.045053680635116798
leaf_weight=7.1598659902811077 4.4394190162420299 5.4528887271881086 4.5264846533536902 5.0596463531255722
leaf_count=34 21 28 20 24
internal_value=0 -0.00928515 0.00261174 -0.0126198
internal_weight=0 19.4784 15.039 10.5125
internal_count=127 93 72 52
is_linear=0
shrinkage=0.07


Tree=37
num_leaves=5
num_cat=0
split_feature=2 1 4 1
split_gain=1.15022 1.46607 2.20639 1.13036
threshold=4.9300000000000006 20.000000000000004 223.75000000000003 25.954618572019129
decision_type=2 2 2 2
left_child=-1 2 -2 -3
right_child=1 3 -4 -5
leaf_value=0.030054188513939421 -0.016913338329741116 -0.050355094388694087 0.045736456874170078 -0.0038335456827437199
leaf_weight=5.0500070005655315 6.3108047097921389 4.9298771917819959 4.8878858983516693 5.3219549655914307
leaf_count=28 29 23 22 25
internal_value=0 -0.00707808 0.0104314 -0.0262047
internal_weight=0 21.4505 11.1987 10.2518
internal_count=127 99 51 48
is_linear=0
shrinkage=0.07


Tree=38
num_leaves=5
num_cat=0
split_feature=5 5 2 2
split_gain=1.15019 1.69651 1.50248 1.77777
threshold=2.391495854378634 4.6780687426313703 5.9891220006539294 5.3716557661154498
decision_type=2 2 2 2
left_child=-1 -2 3 -3
right_child=1 2 -4 -5
leaf_value=0.024089236766550545 -0.047130029960130007 0.015589011036340509 0.036022571293846228 -0.042544335309101275
leaf_weight=7.095728866755965 4.3871195614337948 5.3667881786823255 4.5299019515514365 4.9597909599542618
leaf_count=34 21 28 20 24
internal_value=0 -0.00888266 0.00241178 -0.0123321
internal_weight=0 19.2436 14.8565 10.3266
internal_count=127 93 72 52
is_linear=0
shrinkage=0.07


Tree=39
num_leaves=5
num_cat=0
split_feature=2 4 1 1
split_gain=1.01642 1.34216 0.981989 1.73416
threshold=4.9300000000000006 157.7466451722527 20.000000000000004 25.954618572019129
decision_type=2 2 2 2
left_child=-1 -2 -3 -4
right_child=1 2 3 -5
leaf_value=0.028511125153589306 0.026211162665562844 0.0031572353617027411 -0.062736708538921257 -0.0020402503208134409
leaf_weight=4.9643731936812427 4.7284516394138363 7.2706649154424694 4.4436426460742933 4.7959129065275192
leaf_count=28 21 34 21 23
internal_value=0 -0.00667042 -0.0160876 -0.0312314
internal_weight=0 21.2387 16.5102 9.23956
internal_count=127 99 78 44
is_linear=0
shrinkage=0.07


Tree=40
num_leaves=5
num_cat=0
split_feature=5 2 2 3
split_gain=1.0503 1.35872 2.80905 1.74793
threshold=1.0000000180025095e-35 6.2541431946774724 5.6950000000000012 5.4502758524042063
decision_type=2 2 2 2
left_child=-1 2 3 -2
right_child=1 -3 -4 -5
leaf_value=0.028741703857998693 -0.02367182950592675 0.024030094102347691 -0.065684391183063864 0.031062773360190397
leaf_weight=5.0270486176013973 6.3933388292789477 5.2391223162412635 4.2608084231615058 5.1713305711746216
leaf_count=25 34 23 21 24
internal_value=0 -0.00686831 -0.0170974 0.000803641
internal_weight=0 21.0646 15.8255 11.5647
internal_count=127 102 79 58
is_linear=0
shrinkage=0.07


Tree=41
num_leaves=4
num_cat=0
split_feature=3 5 5
split_gain=0.983071 1.3223 1.42228
threshold=5.1050000000000013 5.2106644410404952 22.901846480519296
decision_type=2 2 2
left_child=-1 -2 -3
right_child=1 2 -4
leaf_value=0.023874381265994997 -0.028998335545945449 0.026766777784197088 -0.024582506325115425
leaf_weight=6.3735629916191128 8.2986226230859774 7.1454926729202253 4.1946975067257881
leaf_count=35 38 32 22
internal_value=0 -0.00776527 0.00777285
internal_weight=0 19.6388 11.3402
internal_count=127 92 54
is_linear=0
shrinkage=0.07


Tree=42
num_leaves=5
num_cat=0
split_feature=2 1 4 0
split_gain=0.892593 1.19941 1.90988 1.06079
threshold=4.9300000000000006 20.000000000000004 223.75000000000003 0.41067856064254504
decision_type=2 2 2 2
left_child=-1 2 -2 -3
right_child=1 3 -4 -5
leaf_value=0.026973893719746296 -0.015966027303963699 -0.0025498415154446741 0.04280466618677662 -0.048242924995937922
leaf_weight=4.8752550259232548 6.2129945904016513 5.3495821803808195 4.8048004657030106 4.6566673293709755
leaf_count=28 29 24 22 24
internal_value=0 -0.00627 0.00966355 -0.0238143
internal_weight=0 21.024 11.0178 10.0062
internal_count=127 99 51 48
is_linear=0
shrinkage=0.07


Tree=43
num_leaves=5
num_cat=0
split_feature=5 4 1 4
split_gain=0.994635 1.76917 3.09061 1.24347
threshold=2.391495854378634 235.20000000000002 20.000000000000004 124.8296527599589
decision_type=2 2 2 2
left_child=-1 3 -3 -2
right_child=1 2 -4 -5
leaf_value=0.022618362550484643 -0.0068957801452349792 0.059398985942950427 -0.01968146325908128 -0.060169470437906145
leaf_weight=6.9467160105705288 4.6137164831161517 3.992193251848219 6.1552854999899864 4.0152392685413361
leaf_count=34 22 19 32 20
internal_value=0 -0.00838406 0.0114302 -0.0316852
internal_weight=0 18.7764 10.1475 8.62896
internal_count=127 93 51 42
is_linear=0
shrinkage=0.07


Tree=44
num_leaves=5
num_cat=0
split_feature=4 2 5 4
split_gain=0.970112 2.01698 3.46895 3.02049
threshold=353.40204172210252 6.119600666790225 3.9600000000000004 211.15096941625848
decision_type=2 2 2 2
left_child=1 2 -1 -4
right_child=-2 -3 3 -5
leaf_value=0.044416559943996244 -0.030261574840693448 0.047347537251234285 -0.061701593578488409 0.0091970576002430547
leaf_weight=4.888442702591429 4.3173063918948165 4.5678016096353522 5.8027762025594694 5.9774485677480698
leaf_count=26 21 20 29 31
internal_value=0 0.00613738 -0.00515565 -0.0257266
internal_weight=0 21.2365 16.6687 11.7802
internal_count=127 106 86 60
is_linear=0
shrinkage=0.07


Tree=45
num_leaves=5
num_cat=0
split_feature=0 5 3 0
split_gain=0.90476 1.21373 1.18028 2.09207
threshold=-0.98771794633961629 2.391495854378634 5.7211968678411802 0.56783827954085064
decision_type=2 2 2 2
left_child=-1 -2 3 -3
right_child=1 2 -4 -5
leaf_value=0.023053029815730701 0.018762814790743782 -0.073804497196949689 0.0055888941482742658 -0.0012107525585320724
leaf_weight=6.2777410894632366 5.9283868670463589 3.8213469311594945 5.4657512754201889 3.9621842354536057
leaf_count=33 28 21 25 20
internal_value=0 -0.00756344 -0.0193431 -0.0368509
internal_weight=0 19.1777 13.2493 7.78353
internal_count=127 94 66 41
is_linear=0
shrinkage=0.07


Tree=46
num_leaves=5
num_cat=0
split_feature=2 2 5 4
split_gain=0.863328 0.888225 1.85211 1.92615
threshold=4.7997959710304832 6.2541431946774724 3.5648824776415071 211.15096941625848
decision_type=2 2 2 2
left_child=-1 2 -2 -4
right_child=1 -3 3 -5
leaf_value=0.032033336733780851 0.018797940269175507 0.016899643146616527 -0.069090709337474729 -0.0067755495550570156
leaf_weight=3.54352639615536 5.4145337343215969 6.3212519139051428 4.0777176767587644 6.0168317854404449
leaf_count=22 26 28 20 31
internal_value=0 -0.00521709 -0.0142315 -0.0319479
internal_weight=0 21.8303 15.5091 10.0945
internal_count=127 105 77 51
is_linear=0
shrinkage=0.07


Tree=47
num_leaves=6
num_cat=0
split_feature=4 2 2 4 3
split_gain=0.910975 1.57908 1.9289 1.20691 0.0240217
threshold=353.40204172210252 6.119600666790225 5.5711708059992597 137.64414046652408 5.3952119258624549
decision_type=2 2 2 2 2
left_child=1 2 3 -1 -5
right_child=-2 -3 -4 4 -6
leaf_value=-0.019561323856917102 -0.029432703820665894 0.042528908067311903 -0.041890461531425227 0.023269646827215523 0.03120459987234676
leaf_weight=4.0736375302076429 4.2828902304172507 4.5403087586164466 4.7176995873451224 3.3579211086034775 4.2173244655132294
leaf_count=22 21 20 24 20 20
internal_value=0 0.00600374 -0.00412883 0.0111643 0.0276872
internal_weight=0 20.9069 16.3666 11.6489 7.57525
internal_count=127 106 86 62 40
is_linear=0
shrinkage=0.07


Tree=48
num_leaves=5
num_cat=0
split_feature=2 4 5 5
split_gain=0.792379 1.50374 0.848995 1.05891
threshold=4.9300000000000006 157.7466451722527 3.4566052462529551 9.9450000000000021
decision_type=2 2 2 2
left_child=-1 -2 -3 -4
right_child=1 2 3 -5
leaf_value=0.025712175509000075 0.029742465564677675 -0.037148816723114687 0.018592304204871572 -0.027092786924081371
leaf_weight=4.7529777288436916 4.4881295412778881 5.9164526909589759 5.1029215455055219 4.8477001786231995
leaf_count=28 21 28 24 26
internal_value=0 -0.00603108 -0.0161499 -0.00366436
internal_weight=0 20.3552 15.8671 9.95062
internal_count=127 99 78 50
is_linear=0
shrinkage=0.07


Tree=49
num_leaves=4
num_cat=0
split_feature=0 4 1
split_gain=0.750826 1.03593 1.57674
threshold=-0.98771794633961629 246.30000000000004 23.297815907947033
decision_type=2 2 2
left_child=-1 -2 -3
right_child=1 2 -4
leaf_value=0.021223879473076822 0.012523313867595889 -0.045515253411000045 0.0074981619478571163
leaf_weight=6.1491354182362583 7.8381374329328564 5.8851504325866681 5.1588740050792694
leaf_count=33 39 28 27
internal_value=0 -0.00693896 -0.0207517
internal_weight=0 18.8822 11.044
internal_count=127 94 55
is_linear=0
shrinkage=0.07


Tree=50
num_leaves=4
num_cat=0
split_feature=3 5 2
split_gain=0.725969 1.65142 0.783539
threshold=5.1050000000000013 5.2106644410404952 5.6100000000000003
decision_type=2 2 2
left_child=-1 -2 -3
right_child=1 2 -4
leaf_value=0.02099309708911563 -0.030644271910651329 0.034357445264109068 -0.0041918492229553982
leaf_weight=6.0923125222325352 8.1159743145108241 4.2934600710868818 6.4873649775981903
leaf_count=35 38 22 32
internal_value=0 -0.00679426 0.0111604
internal_weight=0 18.8968 10.7808
internal_count=127 92 54
is_linear=0
shrinkage=0.07


Tree=51
num_leaves=5
num_cat=0
split_feature=5 2 2 4
split_gain=0.738493 1.03976 2.04993 1.44014
threshold=1.0000000180025095e-35 6.2541431946774724 5.6950000000000012 235.20000000000002
decision_type=2 2 2 2
left_child=-1 2 3 -2
right_child=1 -3 -4 -5
leaf_value=0.02456826150593858 -0.028050768400089174 0.021410431599630138 -0.058562629567056317 0.022787669305585737
leaf_weight=4.8268365785479572 4.906264930963518 5.091069981455802 3.9393209144473067 6.1563088893890381
leaf_count=25 26 23 21 32
internal_value=0 -0.00592404 -0.0152003 0.00024076
internal_weight=0 20.093 15.0019 11.0626
internal_count=127 102 79 58
is_linear=0
shrinkage=0.07


Tree=52
num_leaves=6
num_cat=0
split_feature=4 2 2 5 4
split_gain=0.688439 3.4067 2.18463 1.4929 2.34437
threshold=353.40204172210252 6.2541431946774724 5.5711708059992597 3.9600000000000004 235.20000000000002
decision_type=2 2 2 2 2
left_child=1 2 3 -1 -5
right_child=-2 -3 -4 4 -6
leaf_value=0.044212899896967368 -0.025695483450276623 0.064474736709378005 -0.045900081984430796 -0.046567835765843085 0.031166762946153895
leaf_weight=3.8478996008634656 4.2426649257540694 3.8673724979162207 5.2355902791023246 3.9631661474704742 3.6536130085587502
leaf_count=22 21 17 27 21 19
internal_value=0 0.0052741 -0.00843531 0.00867377 -0.00928014
internal_weight=0 20.5676 16.7003 11.4647 7.61678
internal_count=127 106 89 62 40
is_linear=0
shrinkage=0.07


Tree=53
num_leaves=5
num_cat=0
split_feature=2 4 5 4
split_gain=0.677681 1.27918 0.710755 0.885058
threshold=4.9300000000000006 157.7466451722527 3.4566052462529551 323.85000000000008
decision_type=2 2 2 2
left_child=-1 -2 -3 -4
right_child=1 2 3 -5
leaf_value=0.024117028173738377 0.027709854410514247 -0.034289941347063382 -0.02125675375762022 0.021566573238706806
leaf_weight=4.6283756941556957 4.4027974456548717 5.8552368953824034 5.6790776476263982 4.0523281991481781
leaf_count=28 21 28 29 21
internal_value=0 -0.0056079 -0.0150192 -0.00342437
internal_weight=0 19.9894 15.5866 9.73141
internal_count=127 99 78 50
is_linear=0
shrinkage=0.07


Tree=54
num_leaves=5
num_cat=0
split_feature=3 4 1 5
split_gain=0.673467 1.38271 0.648415 0.189454
threshold=6.5500000000000007 299.15523695726398 11.800000000000002 7.1800000000000006
decision_type=2 2 2 2
left_child=1 2 3 -1
right_child=-2 -3 -4 -5
leaf_value=-0.031355910292185714 -0.026962927402020571 0.036106660787563721 0.0086679042693291134 -0.0093706288942401583
leaf_weight=3.7032714635133797 3.8357848972082129 5.2260702326893798 7.8217201977968216 3.9897620305418968
leaf_count=20 18 28 39 22
internal_value=0 0.00496547 -0.0055243 -0.0199539
internal_weight=0 20.7408 15.5148 7.69303
internal_count=127 109 81 42
is_linear=0
shrinkage=0.07


Tree=55
num_leaves=6
num_cat=0
split_feature=1 2 2 3 3
split_gain=0.674319 1.16907 1.77122 1.57055 1.07405
threshold=32.500000000000007 6.2541431946774724 5.791279147482288 5.4502758524042063 5.0200000000000005
decision_type=2 2 2 2 2
left_child=1 2 3 4 -1
right_child=-2 -3 -4 -5 -6
leaf_value=0.01401393610585566 -0.026206580133121785 0.034618025603949769 -0.0469119561675575 0.041568995400861689 -0.039318141384408214
leaf_weight=3.9527735039591843 4.0276856273412696 4.9850639402866355 3.6610034704208365 4.4669868946075439 3.478695884346962
leaf_count=25 20 22 19 22 19
internal_value=0 0.0051174 -0.00433425 0.00876637 -0.010951
internal_weight=0 20.5445 15.5595 11.8985 7.43147
internal_count=127 107 85 66 44
is_linear=0
shrinkage=0.07


Tree=56
num_leaves=5
num_cat=0
split_feature=0 0 5 5
split_gain=0.647804 1.06094 2.33295 2.96888
threshold=-0.98771794633961629 0.68875267835224852 2.391495854378634 6.120000000000001
decision_type=2 2 2 2
left_child=-1 2 -2 -4
right_child=1 -3 3 -5
leaf_value=0.020078710451711963 0.027862109868517792 0.024788983055109202 -0.080990338905760836 -0.0033213702600287595
leaf_weight=5.9488005787134197 4.2826672345399883 4.1335665434598914 3.9669608995318395 6.1503917872905731
leaf_count=33 21 21 19 33
internal_value=0 -0.00647053 -0.0154437 -0.033775
internal_weight=0 18.5336 14.4 10.1174
internal_count=127 94 73 52
is_linear=0
shrinkage=0.07


Tree=57
num_leaves=5
num_cat=0
split_feature=2 4 4 4
split_gain=0.655762 1.16742 0.622177 1.08572
threshold=4.9300000000000006 157.7466451722527 285.75000000000006 353.40204172210252
decision_type=2 2 2 2
left_child=-1 -2 -3 -4
right_child=1 2 3 -5
leaf_value=0.023967178653085529 0.026459064698525152 -0.029805578679468817 0.022958417106374439 -0.027551037337292403
leaf_weight=4.5401875004172352 4.3595331162214306 7.0923642143607131 4.2873561307787877 4.0600060224533081
leaf_count=28 21 36 22 20
internal_value=0 -0.00552896 -0.014561 -0.00160847
internal_weight=0 19.7993 15.4397 8.34736
internal_count=127 99 78 42
is_linear=0
shrinkage=0.07


Tree=58
num_leaves=5
num_cat=0
split_feature=2 4 5 5
split_gain=0.573028 1.00954 0.597722 0.851414
threshold=4.9300000000000006 157.7466451722527 3.4566052462529551 9.9450000000000021
decision_type=2 2 2 2
left_child=-1 -2 -3 -4
right_child=1 2 3 -5
leaf_value=0.022553667480588593 0.024553013224130456 -0.031489192994872732 0.017083922071930893 -0.024455852772320034
leaf_weight=4.4889110103249577 4.3687533438205746 5.7295751124620429 5.0095025300979596 4.6731239408254623
leaf_count=28 21 28 24 26
internal_value=0 -0.00514924 -0.0135687 -0.00296441
internal_weight=0 19.781 15.4122 9.68263
internal_count=127 99 78 50
is_linear=0
shrinkage=0.07


Tree=59
num_leaves=5
num_cat=0
split_feature=5 5 2 4
split_gain=0.588064 0.930437 1.06436 2.55144
threshold=1.0000000180025095e-35 5.2106644410404952 5.9891220006539294 211.15096941625848
decision_type=2 2 2 2
left_child=-1 -2 3 -3
right_child=1 2 -4 -5
leaf_value=0.022291707300800049 -0.02688432554454618 -0.052121999685503649 0.036403232963605002 0.023154059305163552
leaf_weight=4.6695854216814068 6.5432785674929645 3.7226325869560224 3.8418861627578726 5.416633665561676
leaf_count=25 33 21 18 30
internal_value=0 -0.0053609 0.00548819 -0.0075076
internal_weight=0 19.5244 12.9812 9.13927
internal_count=127 102 69 51
is_linear=0
shrinkage=0.07


Tree=60
num_leaves=5
num_cat=0
split_feature=2 4 3 4
split_gain=0.556473 0.908034 0.555736 2.48937
threshold=4.9300000000000006 157.7466451722527 6.0407399286161558 285.75000000000006
decision_type=2 2 2 2
left_child=-1 -2 3 -3
right_child=1 2 -4 -5
leaf_value=0.022287731980664433 0.023183360535239363 -0.03934460842624176 -0.032554430804731811 0.029146031600242473
leaf_weight=4.4630850851535824 4.3362262248992947 5.0329068899154645 4.8957427293062201 5.3798296302556992
leaf_count=28 21 27 23 28
internal_value=0 -0.00509384 -0.0131035 -0.00395833
internal_weight=0 19.6447 15.3085 10.4127
internal_count=127 99 78 55
is_linear=0
shrinkage=0.07


Tree=61
num_leaves=6
num_cat=0
split_feature=1 2 4 2 2
split_gain=0.611047 1.16773 2.45758 2.62816 0.0586822
threshold=32.500000000000007 6.2541431946774724 299.15523695726398 5.3716557661154498 4.9300000000000006
decision_type=2 2 2 2 2
left_child=1 2 3 4 -1
right_child=-2 -3 -4 -5 -6
leaf_value=0.0010800482910032841 -0.025225303308194384 0.034654511625879306 0.04649093009272235 -0.060047791622567653 0.014006512039152794
leaf_weight=3.449036464095121 3.9412764459848395 4.8947156965732566 3.5324635729193679 4.7770178839564323 3.4343949556350708
leaf_count=22 20 22 20 24 19
internal_value=0 0.00492 -0.0046596 -0.0201553 0.00752953
internal_weight=0 20.0876 15.1929 11.6604 6.88343
internal_count=127 107 85 65 41
is_linear=0
shrinkage=0.07


Tree=62
num_leaves=5
num_cat=0
split_feature=4 2 5 4
split_gain=0.576102 2.81157 1.69629 1.71281
threshold=353.40204172210252 6.2541431946774724 3.9600000000000004 211.15096941625848
decision_type=2 2 2 2
left_child=1 2 -1 -4
right_child=-2 -3 3 -5
leaf_value=0.026448641781245705 -0.023844289298622333 0.059434413658053145 -0.051478742251267487 0.0034820099179813766
leaf_weight=4.9060068279504874 4.1198660880327216 3.7568821161985388 5.3541995286941511 5.7755014002323151
leaf_count=28 21 17 29 32
internal_value=0 0.00492751 -0.00784249 -0.0229581
internal_weight=0 19.7926 16.0357 11.1297
internal_count=127 106 89 61
is_linear=0
shrinkage=0.07


Tree=63
num_leaves=4
num_cat=0
split_feature=0 4 4
split_gain=0.541939 1.03371 0.75492
threshold=-0.98771794633961629 246.30000000000004 299.15523695726398
decision_type=2 2 2
left_child=-1 -2 -3
right_child=1 2 -4
leaf_value=0.018693542115432431 0.013961420064880631 -0.044360874504717519 -0.0056785804958169265
leaf_weight=5.7468866705894497 7.4641270190477398 3.9342482760548574 6.6520359516143799
leaf_count=33 39 21 34
internal_value=0 -0.00598828 -0.0200543
internal_weight=0 18.0504 10.5863
internal_count=127 94 55
is_linear=0
shrinkage=0.07


Tree=64
num_leaves=5
num_cat=0
split_feature=0 0 0 5
split_gain=0.571475 1.35793 1.19223 0.0366942
threshold=0.68875267835224852 0.41067856064254504 -1.0000000180025095e-35 8.8209985767149153
decision_type=2 2 2 2
left_child=1 2 3 -1
right_child=-2 -3 -4 -5
leaf_value=-0.018717094101711667 0.023719855472313232 -0.034674666575603856 0.026924238007606873 -0.0086988450685829243
leaf_weight=3.551272220909599 4.1070909351110449 5.454753838479518 7.0200555175542849 3.6151873469352722
leaf_count=20 21 30 36 20
internal_value=0 -0.00499202 0.00642104 -0.0136633
internal_weight=0 19.6413 14.1865 7.16646
internal_count=127 106 76 40
is_linear=0
shrinkage=0.07


Tree=65
num_leaves=5
num_cat=0
split_feature=3 5 3 5
split_gain=0.549103 1.1761 1.64173 0.799549
threshold=6.5500000000000007 1.0000000180025095e-35 5.7211968678411802 9.9450000000000021
decision_type=2 2 2 2
left_child=1 -1 3 -3
right_child=-2 2 -4 -5
leaf_value=0.039243535207281667 -0.024942069265254899 -0.004487953584529491 0.026694675008943812 -0.043904142695320537
leaf_weight=3.8610279113054338 3.6646083369851103 6.38571994751692 5.6528647541999808 4.1673626080155373
leaf_count=22 18 34 27 26
internal_value=0 0.00452477 -0.00374689 -0.0200532
internal_weight=0 20.067 16.2059 10.5531
internal_count=127 109 87 60
is_linear=0
shrinkage=0.07


Tree=66
num_leaves=5
num_cat=0
split_feature=2 1 0 1
split_gain=0.551078 1.10892 1.24781 0.904502
threshold=4.9300000000000006 20.000000000000004 -1.0000000180025095e-35 25.954618572019129
decision_type=2 2 2 2
left_child=-1 2 -2 -3
right_child=1 3 -4 -5
leaf_value=0.022270241153665445 -0.018009101219334613 -0.045648486416763362 0.032128912385976718 -0.0018931145645888425
leaf_weight=4.420010223984721 4.1948516666889217 4.3836945667862874 5.7886059358716002 4.9054383784532547
leaf_count=28 23 23 28 25
internal_value=0 -0.00513473 0.0110619 -0.022542
internal_weight=0 19.2726 9.98346 9.28913
internal_count=127 99 51 48
is_linear=0
shrinkage=0.07


Tree=67
num_leaves=6
num_cat=0
split_feature=1 5 3 3 3
split_gain=0.547763 0.900235 2.02375 1.31115 0.966521
threshold=32.500000000000007 1.0000000180025095e-35 5.4502758524042063 5.0200000000000005 6.1225894573743282
decision_type=2 2 2 2 2
left_child=1 -1 3 -3 -4
right_child=-2 2 4 -5 -6
leaf_value=0.036071925754855363 -0.024099515988792151 0.00039385237745584694 0.042109086768963577 -0.060706315885894105 -0.0032860972158454014
leaf_weight=3.6525738686323228 3.8706763312220565 3.3381047993898418 4.5282562002539617 3.5523067191243172 4.6666266471147537
leaf_count=21 20 20 23 20 23
internal_value=0 0.00470002 -0.00242377 -0.0311059 0.0190699
internal_weight=0 19.7379 16.0853 6.89041 9.19488
internal_count=127 107 86 40 46
is_linear=0
shrinkage=0.07


Tree=68
num_leaves=4
num_cat=0
split_feature=3 5 1
split_gain=0.51781 1.63247 1.09128
threshold=5.1050000000000013 11.203820410673455 20.62928824857098
decision_type=2 2 2
left_child=-1 2 -2
right_child=1 -3 -4
leaf_value=0.018310587275975079 -0.0012983625758154083 0.025934466644516076 -0.043163489349316519
leaf_weight=5.7152528315782574 6.8256566375494021 5.4680082052946082 5.5167645066976547
leaf_count=35 32 31 29
internal_value=0 -0.00590525 -0.0200111
internal_weight=0 17.8104 12.3424
internal_count=127 92 61
is_linear=0
shrinkage=0.07


Tree=69
num_leaves=5
num_cat=0
split_feature=2 1 2 1
split_gain=0.513365 0.844071 1.10003 0.882259
threshold=4.9300000000000006 20.000000000000004 5.5711708059992597 25.954618572019129
decision_type=2 2 2 2
left_child=-1 2 -2 -3
right_child=1 3 -4 -5
leaf_value=0.02165042236989528 0.040689849555796527 -0.043300359059557182 -0.0080184241164442133 0.00020271746558883402
leaf_weight=4.3606978207826641 3.5084137544035929 4.3186881169676763 6.4464083164930344 4.8491871356964111
leaf_count=28 20 23 31 25
internal_value=0 -0.00496535 0.00914801 -0.0202902
internal_weight=0 19.1227 9.95482 9.16788
internal_count=127 99 51 48
is_linear=0
shrinkage=0.07


Tree=70
num_leaves=5
num_cat=0
split_feature=0 4 5 0
split_gain=0.525702 1.35465 1.89997 0.849748
threshold=0.68875267835224852 211.15096941625848 6.120000000000001 -1.0000000180025095e-35
decision_type=2 2 2 2
left_child=1 3 -3 -1
right_child=-2 2 -4 -5
leaf_value=-0.049624655554391543 0.023094451339149315 -0.013505099481274209 0.044302716505383748 -0.0038049507984552785
leaf_weight=4.0198552459478378 3.9968903958797446 6.6784447431564313 4.7798343300819397 3.9146203622222009
leaf_count=23 21 35 27 21
internal_value=0 -0.00478593 0.0106095 -0.0270187
internal_weight=0 19.3928 11.4583 7.93448
internal_count=127 106 62 44
is_linear=0
shrinkage=0.07


Tree=71
num_leaves=5
num_cat=0
split_feature=0 5 3 0
split_gain=0.530678 0.845428 1.07772 1.85816
threshold=-0.98771794633961629 2.391495854378634 5.7211968678411802 0.56783827954085064
decision_type=2 2 2 2
left_child=-1 -2 3 -3
right_child=1 2 -4 -5
leaf_value=0.018644888704263275 0.016879872148401157 -0.071239415197929506 0.0082484117916606682 0.00043157307217134348
leaf_weight=5.6569926887750652 5.4740668758749988 3.3995915725827199 5.1241917610168457 3.7034934684634209
leaf_count=33 28 21 25 20
internal_value=0 -0.00598365 -0.0162195 -0.0338707
internal_weight=0 17.7013 12.2273 7.10309
internal_count=127 94 66 41
is_linear=0
shrinkage=0.07


Tree=72
num_leaves=6
num_cat=0
split_feature=4 2 2 4 4
split_gain=0.501357 2.61786 1.44731 1.09741 0.01854
threshold=353.40204172210252 6.2541431946774724 5.5711708059992597 137.64414046652408 250.47032611762782
decision_type=2 2 2 2 2
left_child=1 2 3 -1 -5
right_child=-2 -3 -4 4 -6
leaf_value=-0.023007284806162789 -0.022592785704827839 0.057781955612986512 -0.039170802967332462 0.027316742575584724 0.01999609702841942
leaf_weight=3.8870370611548477 3.9947540014982215 3.6779285520315161 4.9441032931208602 3.3797173127532005 3.4009485095739365
leaf_count=22 21 17 27 20 20
internal_value=0 0.00465283 -0.00786367 0.00664608 0.023645
internal_weight=0 19.2897 15.6118 10.6677 6.78067
internal_count=127 106 89 62 40
is_linear=0
shrinkage=0.07


Tree=73
num_leaves=6
num_cat=0
split_feature=3 4 1 3 5
split_gain=0.479277 1.20968 0.806482 0.261633 0.0159022
threshold=6.5500000000000007 268.30000000000001 11.800000000000002 5.3952119258624549 8.2980027656038384
decision_type=2 2 2 2 2
left_child=1 2 4 -3 -1
right_child=-2 3 -4 -5 -6
leaf_value=-0.028447891009030453 -0.023608500907016699 0.012282079480759671 0.011772428803117293 0.038207163951052961 -0.021743022218548517
leaf_weight=3.4790274724364334 3.5700151100754729 3.6054657250642768 5.0012555941939354 4.0500626116991043 3.454234667122364
leaf_count=20 18 22 26 21 20
internal_value=0 0.00427893 -0.00965264 0.0259974 -0.0251074
internal_weight=0 19.59 11.9345 7.65553 6.93326
internal_count=127 109 66 43 40
is_linear=0
shrinkage=0.07


Tree=74
num_leaves=5
num_cat=0
split_feature=2 4 3 4
split_gain=0.514845 0.849193 0.44237 2.05386
threshold=4.9300000000000006 157.7466451722527 6.0407399286161558 285.75000000000006
decision_type=2 2 2 2
left_child=-1 -2 3 -3
right_child=1 2 -4 -5
leaf_value=0.021710005323041872 0.022979810829008806 -0.037850399614338413 -0.030627864868377687 0.025750475798823502
leaf_weight=4.3410942852497127 4.1364199966192272 4.7566213682293874 4.7027059048414221 5.2163353711366653
leaf_count=28 21 27 23 28
internal_value=0 -0.00503382 -0.0129296 -0.00458409
internal_weight=0 18.8121 14.6757 9.97296
internal_count=127 99 78 55
is_linear=0
shrinkage=0.07


Tree=75
num_leaves=6
num_cat=0
split_feature=1 2 4 2 5
split_gain=0.492233 0.880633 1.86107 2.10224 0.0540562
threshold=32.500000000000007 6.2541431946774724 299.15523695726398 5.3716557661154498 7.1800000000000006
decision_type=2 2 2 2 2
left_child=1 2 3 4 -1
right_child=-2 -3 -4 -5 -6
leaf_value=0.013155757378407813 -0.023034289923760068 0.030842129633876569 0.041334985145769311 -0.054712865964288787 0.00051273168954721045
leaf_weight=3.5217083096504265 3.8029862120747557 4.7074863016605368 3.4023731127381316 4.5073776766657829 3.1296627894043922
leaf_count=22 20 22 20 24 19
internal_value=0 0.00452289 -0.00398589 -0.0178045 0.00720685
internal_weight=0 19.2686 14.5611 11.1587 6.65137
internal_count=127 107 85 65 41
is_linear=0
shrinkage=0.07


Tree=76
num_leaves=5
num_cat=0
split_feature=0 0 2 3
split_gain=0.496734 0.841895 1.20721 1.55348
threshold=-0.98771794633961629 0.28360385667135829 5.9200000000000008 5.3952119258624549
decision_type=2 2 2 2
left_child=-1 -2 3 -3
right_child=1 2 -4 -5
leaf_value=0.018289226076608715 -0.033170401237373831 -0.0080058410637674285 -0.028613397795374973 0.05035792821376274
leaf_weight=5.5136270001530674 4.188535891473296 5.2074818760156614 4.1200398057699195 3.9145220667123795
leaf_count=33 22 31 21 20
internal_value=0 -0.00581661 0.00283556 0.0170398
internal_weight=0 17.4306 13.242 9.122
internal_count=127 94 72 51
is_linear=0
shrinkage=0.07


Tree=77
num_leaves=5
num_cat=0
split_feature=4 2 5 4
split_gain=0.4608 2.34424 1.41605 1.33853
threshold=353.40204172210252 6.2541431946774724 3.9600000000000004 211.15096941625848
decision_type=2 2 2 2
left_child=1 2 -1 -4
right_child=-2 -3 3 -5
leaf_value=0.024879160236981522 -0.021790975093228315 0.055234068323355118 -0.046960002099527068 0.0025605741189190568
leaf_weight=4.636233985424048 3.9445476830005637 3.6130217611789694 5.1879078000783903 5.5207136049866676
leaf_count=28 21 17 29 32
internal_value=0 0.00450575 -0.00743848 -0.0214302
internal_weight=0 18.9579 15.3449 10.7086
internal_count=127 106 89 61
is_linear=0
shrinkage=0.07


Tree=78
num_leaves=5
num_cat=0
split_feature=2 4 5 3
split_gain=0.466879 0.846665 0.395879 0.624154
threshold=4.9300000000000006 157.7466451722527 3.4566052462529551 5.7211968678411802
decision_type=2 2 2 2
left_child=-1 -2 -3 -4
right_child=1 2 3 -5
leaf_value=0.020795740674119378 0.02360337282534614 -0.027895521312837658 -0.019862049674477803 0.017019854763103092
leaf_weight=4.2861283868551281 4.0142829269170788 5.3290771916508666 5.1948954761028272 3.9639002680778503
leaf_count=28 21 28 31 19
internal_value=0 -0.00484392 -0.0127261 -0.00389967
internal_weight=0 18.5022 14.4879 9.1588
internal_count=127 99 78 50
is_linear=0
shrinkage=0.07


Tree=79
num_leaves=5
num_cat=0
split_feature=0 0 4 1
split_gain=0.463597 1.07929 1.13302 1.05123
threshold=0.68875267835224852 0.41067856064254504 211.15096941625848 21.176056143753822
decision_type=2 2 2 2
left_child=1 2 -1 -4
right_child=-2 -3 3 -5
leaf_value=-0.0183452703273854 0.021696053584198152 -0.03193752401448794 0.049891844435182853 -0.0010307727651620606
leaf_weight=5.6313172727823311 3.9748489148914805 5.1439847871661177 3.7141599580645561 4.27023795992136
leaf_count=33 21 30 20 23
internal_value=0 -0.00462105 0.00569905 0.0226573
internal_weight=0 18.7597 13.6157 7.9844
internal_count=127 106 76 43
is_linear=0
shrinkage=0.07


Tree=80
num_leaves=6
num_cat=0
split_feature=2 1 4 0 0
split_gain=0.429768 0.831945 0.831076 1.29416 1.21374
threshold=4.9300000000000006 30.10077396119561 157.7466451722527 0.56783827954085064 -1.0000000180025095e-35
decision_type=2 2 2 2 2
left_child=-1 2 -2 4 -4
right_child=1 -3 3 -5 -6
leaf_value=0.020058888669695303 0.032304989686353668 -0.034132476735294792 -0.019510542227130584 -0.040519840871209085 0.037132432952294778
leaf_weight=4.2461019679904011 3.558623060584071 3.7369122281670561 3.5290456786751774 3.6790350377559662 3.9045339971780733
leaf_count=28 19 20 20 19 21
internal_value=0 -0.00464639 0.00286401 -0.00656395 0.0102415
internal_weight=0 18.4082 14.6712 11.1126 7.43358
internal_count=127 99 79 60 41
is_linear=0
shrinkage=0.07


Tree=81
num_leaves=5
num_cat=0
split_feature=1 1 4 0
split_gain=0.46936 0.992985 1.78792 1.1438
threshold=25.954618572019129 20.000000000000004 223.75000000000003 -1.0000000180025095e-35
decision_type=2 2 2 2
left_child=1 2 3 -1
right_child=-2 -3 -4 -5
leaf_value=-0.04423531636246484 0.017225082802611764 -0.034253456797445195 0.03822462703321651 0.0098979696261286623
leaf_weight=3.7455253005027807 5.7620617374777785 4.4563246965408316 4.7092182636260986 3.9082471355795878
leaf_count=23 32 25 26 21
internal_value=0 -0.00592397 0.00428758 -0.0165932
internal_weight=0 16.8193 12.363 7.65377
internal_count=127 95 70 44
is_linear=0
shrinkage=0.07


Tree=82
num_leaves=5
num_cat=0
split_feature=0 5 0 5
split_gain=0.45892 0.813231 0.937049 1.22153
threshold=-0.98771794633961629 1.0000000180025095e-35 0.60182812630212712 6.120000000000001
decision_type=2 2 2 2
left_child=-1 -2 3 -3
right_child=1 2 -4 -5
leaf_value=0.017749275349156563 0.024023210885765429 -0.052328008531726734 0.01667463249271034 -0.0026907094160505979
leaf_weight=5.4119873866438892 3.5798641480505493 4.374780133366583 3.6718652248382559 5.4627925977110863
leaf_count=33 19 23 21 31
internal_value=0 -0.00564069 -0.0135013 -0.0247645
internal_weight=0 17.0893 13.5094 9.83757
internal_count=127 94 75 54
is_linear=0
shrinkage=0.07


Tree=83
num_leaves=5
num_cat=0
split_feature=1 1 4 0
split_gain=0.416461 0.889456 1.55092 1.05365
threshold=25.954618572019129 20.000000000000004 223.75000000000003 -1.0000000180025095e-35
decision_type=2 2 2 2
left_child=1 2 3 -1
right_child=-2 -3 -4 -5
leaf_value=-0.041971236635948345 0.016280141164884153 -0.032483007328784314 0.035934288794768815 0.010107161389740335
leaf_weight=3.7235169708728826 5.7236001938581458 4.4307565540075293 4.6559966020286083 3.8947676122188586
leaf_count=23 32 25 26 21
internal_value=0 -0.00559891 0.00410569 -0.0153467
internal_weight=0 16.705 12.2743 7.61828
internal_count=127 95 70 44
is_linear=0
shrinkage=0.07


Tree=84
num_leaves=4
num_cat=0
split_feature=3 3 1
split_gain=0.479331 0.860883 1.00755
threshold=5.1050000000000013 5.4502758524042063 20.828711659762522
decision_type=2 2 2
left_child=-1 -2 -3
right_child=1 2 -4
leaf_value=0.017967378111824063 -0.036109938356886501 0.019656341390262809 -0.019195814289177035
leaf_weight=5.4825550876557854 3.6200595796108272 7.3672738596796972 5.8818376958370209
leaf_count=35 22 39 31
internal_value=0 -0.00585762 0.00240824
internal_weight=0 16.8692 13.2491
internal_count=127 92 70
is_linear=0
shrinkage=0.07


Tree=85
num_leaves=5
num_cat=0
split_feature=0 5 3 0
split_gain=0.432103 0.734505 1.237 1.5986
threshold=-0.98771794633961629 2.2100000000000004 5.7211968678411802 0.56783827954085064
decision_type=2 2 2 2
left_child=-1 -2 3 -3
right_child=1 2 -4 -5
leaf_value=0.017307699225098196 0.018429791581308322 -0.065574535924895552 0.01200180585345942 0.00021045183157413869
leaf_weight=5.3601164147257832 4.584447484463456 3.653999023139475 5.1065868437290192 3.5866814702749252
leaf_count=33 25 23 26 20
internal_value=0 -0.00549713 -0.014381 -0.0329878
internal_weight=0 16.9317 12.3473 7.24068
internal_count=127 94 69 43
is_linear=0
shrinkage=0.07


Tree=86
num_leaves=5
num_cat=0
split_feature=4 2 5 4
split_gain=0.437105 2.08995 1.26726 1.14039
threshold=353.40204172210252 6.2541431946774724 3.9600000000000004 211.15096941625848
decision_type=2 2 2 2
left_child=1 2 -1 -4
right_child=-2 -3 3 -5
leaf_value=0.024266774925167701 -0.02149757233503418 0.053324463966666333 -0.043920243793600953 0.0023464793908949681
leaf_weight=4.4696256816387239 3.8396478407084933 3.4790115654468527 5.1071079298853856 5.3397775813937187
leaf_count=28 21 17 29 32
internal_value=0 0.0044687 -0.00692604 -0.0202717
internal_weight=0 18.3955 14.9165 10.4469
internal_count=127 106 89 61
is_linear=0
shrinkage=0.07


Tree=87
num_leaves=5
num_cat=0
split_feature=2 4 3 4
split_gain=0.462107 0.770653 0.436575 1.61924
threshold=4.9300000000000006 157.7466451722527 5.8660993203315437 285.75000000000006
decision_type=2 2 2 2
left_child=-1 -2 3 -3
right_child=1 2 -4 -5
leaf_value=0.020871168856771857 0.022431877733492971 -0.034104011283477668 -0.029036937238480453 0.02559687056936338
leaf_weight=4.2046635821461704 3.9392507672309902 4.3140858672559244 5.0632329806685439 4.5994497425854206
leaf_count=28 21 26 26 26
internal_value=0 -0.00491471 -0.0126222 -0.00329792
internal_weight=0 17.916 13.9768 8.91354
internal_count=127 99 78 52
is_linear=0
shrinkage=0.07


Tree=88
num_leaves=5
num_cat=0
split_feature=3 5 4 1
split_gain=0.422043 1.51689 0.917287 1.50479
threshold=5.1050000000000013 11.203820410673455 223.75000000000003 20.828711659762522
decision_type=2 2 2 2
left_child=-1 2 -2 -4
right_child=1 -3 3 -5
leaf_value=0.016990962850337323 -0.048437330255819394 0.025987155672218893 0.029940633192095185 -0.032355323904680058
leaf_weight=5.4001011960208443 3.692223936319353 5.1620074398815623 3.2861111238598824 4.5043870471417904
leaf_count=35 19 31 17 25
internal_value=0 -0.00553017 -0.0196987 -0.00607826
internal_weight=0 16.6447 11.4827 7.7905
internal_count=127 92 61 42
is_linear=0
shrinkage=0.07


Tree=89
num_leaves=5
num_cat=0
split_feature=2 4 0 4
split_gain=0.407548 0.711406 0.396614 0.378526
threshold=4.9300000000000006 157.7466451722527 0.60182812630212712 323.85000000000008
decision_type=2 2 2 2
left_child=-1 -2 3 -3
right_child=1 2 -4 -5
leaf_value=0.019775099051416081 0.021575331328835511 -0.015493642999255947 -0.032420393257143042 0.012159091153604491
leaf_weight=4.1389160566031959 3.9574464708566692 6.5100577212870103 3.506887547671794 3.8660118766129017
leaf_count=28 21 37 19 22
internal_value=0 -0.00460577 -0.0120689 -0.00519053
internal_weight=0 17.8404 13.883 10.3761
internal_count=127 99 78 59
is_linear=0
shrinkage=0.07


Tree=90
num_leaves=5
num_cat=0
split_feature=1 1 4 0
split_gain=0.425812 0.726966 1.30652 1.00034
threshold=25.954618572019129 20.000000000000004 223.75000000000003 -1.0000000180025095e-35
decision_type=2 2 2 2
left_child=1 2 3 -1
right_child=-2 -3 -4 -5
leaf_value=-0.041079602608660948 0.016574296818128251 -0.030366158752564862 0.032832409085607216 0.010266772001696095
leaf_weight=3.6455101743340528 5.6329404264688483 4.3200496062636367 4.51725023239851 3.7942460998892802
leaf_count=23 32 25 26 21
internal_value=0 -0.00575488 0.00313714 -0.0148932
internal_weight=0 16.2771 11.957 7.43976
internal_count=127 95 70 44
is_linear=0
shrinkage=0.07


Tree=91
num_leaves=5
num_cat=0
split_feature=4 2 5 4
split_gain=0.43811 1.96254 1.2399 1.03241
threshold=353.40204172210252 6.2541431946774724 3.9600000000000004 211.15096941625848
decision_type=2 2 2 2
left_child=1 2 -1 -4
right_child=-2 -3 3 -5
leaf_value=0.024720364689233415 -0.021616118636661581 0.052429873286618162 -0.042535024203469059 0.0018377602004460468
leaf_weight=4.3528929315507474 3.7994197085499755 3.4019051045179358 5.0258553102612478 5.2565048113465309
leaf_count=28 21 17 29 32
internal_value=0 0.00453796 -0.00659432 -0.019851
internal_weight=0 18.0372 14.6353 10.2824
internal_count=127 106 89 61
is_linear=0
shrinkage=0.07


Tree=92
num_leaves=5
num_cat=0
split_feature=1 1 2 5
split_gain=0.421298 0.955978 0.689396 1.08209
threshold=32.500000000000007 22.500000000000004 6.2541431946774724 8.2980027656038384
decision_type=2 2 2 2
left_child=1 2 3 -1
right_child=-2 -3 -4 -5
leaf_value=0.0072507048738637732 -0.021884837415895444 0.037865181125226674 0.022584537494933759 -0.03699018218257339
leaf_weight=6.1600347533822113 3.5995392724871627 3.3874796144664279 3.7404794394969931 4.8355319052934647
leaf_count=36 20 21 19 31
internal_value=0 0.0043337 -0.00337442 -0.0122052
internal_weight=0 18.1235 14.736 10.9956
internal_count=127 107 86 67
is_linear=0
shrinkage=0.07


Tree=93
num_leaves=5
num_cat=0
split_feature=4 3 1 4
split_gain=0.409516 1.12382 1.28353 1.54585
threshold=353.40204172210252 6.2191566170861652 20.000000000000004 204.35938594444499
decision_type=2 2 2 2
left_child=1 2 3 -1
right_child=-2 -3 -4 -5
leaf_value=-0.012126204216459168 -0.020926172692972703 0.037713263501419389 -0.030489362115338991 0.049429209263578459
leaf_weight=4.9576015919446998 3.7854352667927733 3.8871603533625594 5.6770544797182074 3.3498789332807064
leaf_count=29 21 21 34 22
internal_value=0 0.00441887 -0.00483568 0.0126952
internal_weight=0 17.8717 13.9845 8.30748
internal_count=127 106 85 51
is_linear=0
shrinkage=0.07


Tree=94
num_leaves=5
num_cat=0
split_feature=3 4 0 2
split_gain=0.550542 0.628079 1.77709 0.841311
threshold=6.5500000000000007 268.30000000000001 0.32500000000000001 5.3716557661154498
decision_type=2 2 2 2
left_child=1 3 -3 -1
right_child=-2 2 -4 -5
leaf_value=0.011377419558722263 -0.026441775670263918 -0.016800530979355442 0.053255638857769773 -0.027325514735332908
leaf_weight=6.2573348395526462 3.2749296203255644 3.2937505170702925 3.8459059596061707 4.9128961488604546
leaf_count=39 18 19 24 27
internal_value=0 0.00472009 0.0209365 -0.00564492
internal_weight=0 18.3099 7.13966 11.1702
internal_count=127 109 43 66
is_linear=0
shrinkage=0.07


Tree=95
num_leaves=4
num_cat=0
split_feature=0 4 1
split_gain=0.419105 0.881477 1.29421
threshold=-0.98771794633961629 246.30000000000004 23.297815907947033
decision_type=2 2 2
left_child=-1 -2 -3
right_child=1 2 -4
leaf_value=0.017384085248658081 0.013751566914112669 -0.043937897046460957 0.0076137954982069943
leaf_weight=5.1612460352480438 6.811045557260516 4.9731028079986555 4.5874152332544327
leaf_count=33 39 28 27
internal_value=0 -0.0054923 -0.0192019
internal_weight=0 16.3716 9.56052
internal_count=127 94 55
is_linear=0
shrinkage=0.07


Tree=96
num_leaves=4
num_cat=0
split_feature=1 0 4
split_gain=0.407847 0.803359 2.27987
threshold=32.500000000000007 0.56783827954085064 235.20000000000002
decision_type=2 2 2
left_child=1 2 -1
right_child=-2 -3 -4
leaf_value=-0.015322986490115879 -0.021672316240092752 -0.017462022820560533 0.045092793420918653
leaf_weight=6.2253377661109024 3.5541579201817504 5.6849697269499293 6.020480290055275
leaf_count=39 20 32 36
internal_value=0 0.00428416 0.0143796
internal_weight=0 17.9308 12.2458
internal_count=127 107 75
is_linear=0
shrinkage=0.07


Tree=97
num_leaves=5
num_cat=0
split_feature=0 1 4 4
split_gain=0.439907 1.31303 1.76013 0.320305
threshold=0.68875267835224852 30.10077396119561 211.15096941625848 323.85000000000008
decision_type=2 2 2 2
left_child=1 2 -1 -4
right_child=-2 -3 3 -5
leaf_value=-0.02261609325599347 0.021784135255206921 -0.044000310761988022 0.038833140525486823 0.010287477704055832
leaf_weight=6.4123777598142677 3.7457739263772956 3.3604598343372336 4.5536117292940617 3.3380412310361862
leaf_count=39 21 19 29 19
internal_value=0 -0.00462584 0.00462444 0.0267588
internal_weight=0 17.6645 14.304 7.89165
internal_count=127 106 87 48
is_linear=0
shrinkage=0.07


Tree=98
num_leaves=6
num_cat=0
split_feature=3 5 3 5 3
split_gain=0.464978 0.849927 1.32014 1.13235 0.744663
threshold=6.5500000000000007 1.0000000180025095e-35 5.3952119258624549 11.203820410673455 5.0200000000000005
decision_type=2 2 2 2 2
left_child=1 -1 4 -4 -3
right_child=-2 2 3 -5 -6
leaf_value=0.035741801964848448 -0.02450040995599511 -0.0032684436801045345 -0.0065355042174408519 0.045418929128741105 -0.051781289819985712
leaf_weight=3.4275366142392221 3.223021872341632 3.1022481992840758 4.9608666449785215 3.5099024921655655 3.0993295572698116
leaf_count=22 18 20 27 20 20
internal_value=0 0.0043577 -0.0029738 0.0149921 -0.0275135
internal_weight=0 18.0999 14.6723 8.47077 6.20158
internal_count=127 109 87 47 40
is_linear=0
shrinkage=0.07


Tree=99
num_leaves=5
num_cat=0
split_feature=4 3 5 3
split_gain=0.477228 0.768074 0.953089 0.748104
threshold=71.050000000000026 6.0407399286161558 2.2100000000000004 5.3532022644081447
decision_type=2 2 2 2
left_child=-1 2 -2 -4
right_child=1 -3 3 -5
leaf_value=0.023098284892998897 0.041036616937866775 -0.02338241009654872 -0.029084594889242154 0.013882668237318102
leaf_weight=3.6319283992052105 2.9060560055077103 6.7204008623957625 3.6591084450483304 4.341289222240448
leaf_count=21 18 37 25 26
internal_value=0 -0.0047677 0.00670243 -0.00576909
internal_weight=0 17.6269 10.9065 8.0004
internal_count=127 106 69 51
is_linear=0
shrinkage=0.07


end of trees

feature_importances:
Uric_Acid=82
CA-199=81
FBG=80
Ki67=53
IOAA=52
Glycated_Hemoglobin=50

parameters:
[boosting: gbdt]
[objective: binary]
[metric: binary_logloss]
[tree_learner: serial]
[device_type: cpu]
[data: ]
[valid: ]
[num_iterations: 100]
[learning_rate: 0.07]
[num_leaves: 31]
[num_threads: 0]
[deterministic: 0]
[force_col_wise: 0]
[force_row_wise: 0]
[histogram_pool_size: -1]
[max_depth: -1]
[min_data_in_leaf: 20]
[min_sum_hessian_in_leaf: 0.001]
[bagging_fraction: 1]
[pos_bagging_fraction: 1]
[neg_bagging_fraction: 1]
[bagging_freq: 0]
[bagging_seed: 3]
[feature_fraction: 0.9]
[feature_fraction_bynode: 1]
[feature_fraction_seed: 2]
[extra_trees: 0]
[extra_seed: 6]
[early_stopping_round: 10]
[first_metric_only: 0]
[max_delta_step: 0]
[lambda_l1: 0]
[lambda_l2: 0]
[linear_lambda: 0]
[min_gain_to_split: 0]
[drop_rate: 0.1]
[max_drop: 50]
[skip_drop: 0.5]
[xgboost_dart_mode: 0]
[uniform_drop: 0]
[drop_seed: 4]
[top_rate: 0.2]
[other_rate: 0.1]
[min_data_per_group: 100]
[max_cat_threshold: 32]
[cat_l2: 10]
[cat_smooth: 10]
[max_cat_to_onehot: 4]
[top_k: 20]
[monotone_constraints: ]
[monotone_constraints_method: basic]
[monotone_penalty: 0]
[feature_contri: ]
[forcedsplits_filename: ]
[refit_decay_rate: 0.9]
[cegb_tradeoff: 1]
[cegb_penalty_split: 0]
[cegb_penalty_feature_lazy: ]
[cegb_penalty_feature_coupled: ]
[path_smooth: 0]
[interaction_constraints: ]
[verbosity: 1]
[saved_feature_importance_type: 0]
[linear_tree: 0]
[max_bin: 255]
[max_bin_by_feature: ]
[min_data_in_bin: 3]
[bin_construct_sample_cnt: 200000]
[data_random_seed: 1]
[is_enable_sparse: 1]
[enable_bundle: 1]
[use_missing: 1]
[zero_as_missing: 0]
[feature_pre_filter: 1]
[pre_partition: 0]
[two_round: 0]
[header: 0]
[label_column: ]
[weight_column: ]
[group_column: ]
[ignore_column: ]
[categorical_feature: ]
[forcedbins_filename: ]
[precise_float_parser: 0]
[objective_seed: 5]
[num_class: 1]
[is_unbalance: 0]
[scale_pos_weight: 1]
[sigmoid: 1]
[boost_from_average: 1]
[reg_sqrt: 0]
[alpha: 0.9]
[fair_c: 1]
[poisson_max_delta_step: 0.7]
[tweedie_variance_power: 1.5]
[lambdarank_truncation_level: 30]
[lambdarank_norm: 1]
[label_gain: ]
[eval_at: ]
[multi_error_top_k: 1]
[auc_mu_weights: ]
[num_machines: 1]
[local_listen_port: 12400]
[time_out: 120]
[machine_list_filename: ]
[machines: ]
[gpu_platform_id: -1]
[gpu_device_id: -1]
[gpu_use_dp: 0]
[num_gpu: 1]

end of parameters

pandas_categorical:[]
